<?xml version="1.0"?>
<opencv_storage>
<cascade>
  <stageType>BOOST</stageType>
  <featureType>HAAR</featureType>
  <height>20</height>
  <width>20</width>
  <stageParams>
    <boostType>GAB</boostType>
    <minHitRate>9.9500000476837158e-01</minHitRate>
    <maxFalseAlarm>5.0000000000000000e-01</maxFalseAlarm>
    <weightTrimRate>9.4999999999999996e-01</weightTrimRate>
    <maxDepth>1</maxDepth>
    <maxWeakCount>100</maxWeakCount></stageParams>
  <featureParams>
    <maxCatCount>0</maxCatCount>
    <featSize>1</featSize>
    <mode>BASIC</mode></featureParams>
  <stageNum>7</stageNum>
  <stages>
    <!-- stage 0 -->
    <_>
      <maxWeakCount>2</maxWeakCount>
      <stageThreshold>-1.1611767113208771e-01</stageThreshold>
      <weakClassifiers>
        <_>
          <internalNodes>
            0 -1 10 -1.2778684031218290e-03</internalNodes>
          <leafValues>
            6.5949487686157227e-01 -9.0747332572937012e-01</leafValues></_>
        <_>
          <internalNodes>
            0 -1 2 3.3172622323036194e-02</internalNodes>
          <leafValues>
            -6.0976612567901611e-01 7.9135560989379883e-01</leafValues></_></weakClassifiers></_>
    <!-- stage 1 -->
    <_>
      <maxWeakCount>1</maxWeakCount>
      <stageThreshold>7.0560306310653687e-01</stageThreshold>
      <weakClassifiers>
        <_>
          <internalNodes>
            0 -1 4 -1.8025489524006844e-02</internalNodes>
          <leafValues>
            -9.8653197288513184e-01 7.0560306310653687e-01</leafValues></_></weakClassifiers></_>
    <!-- stage 2 -->
    <_>
      <maxWeakCount>3</maxWeakCount>
      <stageThreshold>-8.8401108980178833e-01</stageThreshold>
      <weakClassifiers>
        <_>
          <internalNodes>
            0 -1 3 -5.3868051618337631e-03</internalNodes>
          <leafValues>
            7.0773637294769287e-01 -9.6039605140686035e-01</leafValues></_>
        <_>
          <internalNodes>
            0 -1 7 -5.0694160163402557e-03</internalNodes>
          <leafValues>
            -9.6840059757232666e-01 5.0668793916702271e-01</leafValues></_>
        <_>
          <internalNodes>
            0 -1 1 3.1895194202661514e-02</internalNodes>
          <leafValues>
            -6.2334686517715454e-01 6.7783796787261963e-01</leafValues></_></weakClassifiers></_>
    <!-- stage 3 -->
    <_>
      <maxWeakCount>3</maxWeakCount>
      <stageThreshold>2.9541516304016113e-01</stageThreshold>
      <weakClassifiers>
        <_>
          <internalNodes>
            0 -1 6 -3.5067112185060978e-03</internalNodes>
          <leafValues>
            -9.5620435476303101e-01 6.6171002388000488e-01</leafValues></_>
        <_>
          <internalNodes>
            0 -1 11 1.8133094534277916e-02</internalNodes>
          <leafValues>
            -8.7001144886016846e-01 5.5722326040267944e-01</leafValues></_>
        <_>
          <internalNodes>
            0 -1 0 9.5650246366858482e-03</internalNodes>
          <leafValues>
            -6.6088593006134033e-01 6.9439625740051270e-01</leafValues></_></weakClassifiers></_>
    <!-- stage 4 -->
    <_>
      <maxWeakCount>1</maxWeakCount>
      <stageThreshold>6.8539327383041382e-01</stageThreshold>
      <weakClassifiers>
        <_>
          <internalNodes>
            0 -1 5 -8.1297493306919932e-04</internalNodes>
          <leafValues>
            6.8539327383041382e-01 -1.</leafValues></_></weakClassifiers></_>
    <!-- stage 5 -->
    <_>
      <maxWeakCount>1</maxWeakCount>
      <stageThreshold>6.4857405424118042e-01</stageThreshold>
      <weakClassifiers>
        <_>
          <internalNodes>
            0 -1 8 -8.9520346373319626e-03</internalNodes>
          <leafValues>
            -9.6958172321319580e-01 6.4857405424118042e-01</leafValues></_></weakClassifiers></_>
    <!-- stage 6 -->
    <_>
      <maxWeakCount>1</maxWeakCount>
      <stageThreshold>7.4174755811691284e-01</stageThreshold>
      <weakClassifiers>
        <_>
          <internalNodes>
            0 -1 9 3.6462750285863876e-03</internalNodes>
          <leafValues>
            7.4174755811691284e-01 -9.8124998807907104e-01</leafValues></_></weakClassifiers></_></stages>
  <features>
    <_>
      <rects>
        <_>
          0 5 2 10 -1.</_>
        <_>
          1 5 1 10 2.</_></rects>
      <tilted>0</tilted></_>
    <_>
      <rects>
        <_>
          3 0 14 4 -1.</_>
        <_>
          3 2 14 2 2.</_></rects>
      <tilted>0</tilted></_>
    <_>
      <rects>
        <_>
          4 0 11 6 -1.</_>
        <_>
          4 2 11 2 3.</_></rects>
      <tilted>0</tilted></_>
    <_>
      <rects>
        <_>
          5 6 9 10 -1.</_>
        <_>
          5 11 9 5 2.</_></rects>
      <tilted>0</tilted></_>
    <_>
      <rects>
        <_>
          5 8 9 8 -1.</_>
        <_>
          5 12 9 4 2.</_></rects>
      <tilted>0</tilted></_>
    <_>
      <rects>
        <_>
          6 6 4 8 -1.</_>
        <_>
          6 10 4 4 2.</_></rects>
      <tilted>0</tilted></_>
    <_>
      <rects>
        <_>
          6 6 6 6 -1.</_>
        <_>
          6 9 6 3 2.</_></rects>
      <tilted>0</tilted></_>
    <_>
      <rects>
        <_>
          6 6 8 6 -1.</_>
        <_>
          6 9 8 3 2.</_></rects>
      <tilted>0</tilted></_>
    <_>
      <rects>
        <_>
          7 5 8 5 -1.</_>
        <_>
          11 5 4 5 2.</_></rects>
      <tilted>0</tilted></_>
    <_>
      <rects>
        <_>
          7 8 8 7 -1.</_>
        <_>
          11 8 4 7 2.</_></rects>
      <tilted>0</tilted></_>
    <_>
      <rects>
        <_>
          9 9 2 6 -1.</_>
        <_>
          9 12 2 3 2.</_></rects>
      <tilted>0</tilted></_>
    <_>
      <rects>
        <_>
          13 5 6 10 -1.</_>
        <_>
          16 5 3 10 2.</_></rects>
      <tilted>0</tilted></_></features></cascade>
</opencv_storage>
